digraph Tree {
node [shape=box, style="filled, rounded", color="black", fontname=helvetica] ;
edge [fontname=helvetica] ;
0 [label="petal length (cm) <= 2.35\ngini = 0.65\nsamples = 99\nvalue = [36, 58, 56]\nclass = versicolor", fillcolor="#fbfefc"] ;
1 [label="gini = 0.0\nsamples = 24\nvalue = [36, 0, 0]\nclass = setosa", fillcolor="#e58139"] ;
0 -> 1 [labeldistance=2.5, labelangle=45, headlabel="True"] ;
2 [label="petal width (cm) <= 1.75\ngini = 0.5\nsamples = 75\nvalue = [0, 58, 56]\nclass = versicolor", fillcolor="#f8fefb"] ;
0 -> 2 [labeldistance=2.5, labelangle=-45, headlabel="False"] ;
3 [label="petal width (cm) <= 1.35\ngini = 0.19\nsamples = 41\nvalue = [0, 58, 7]\nclass = versicolor", fillcolor="#51e890"] ;
2 -> 3 ;
4 [label="gini = 0.0\nsamples = 21\nvalue = [0, 34, 0]\nclass = versicolor", fillcolor="#39e581"] ;
3 -> 4 ;
5 [label="petal length (cm) <= 5.05\ngini = 0.35\nsamples = 20\nvalue = [0, 24, 7]\nclass = versicolor", fillcolor="#73eda6"] ;
3 -> 5 ;
6 [label="sepal length (cm) <= 5.05\ngini = 0.16\nsamples = 17\nvalue = [0, 21, 2]\nclass = versicolor", fillcolor="#4ce78d"] ;
5 -> 6 ;
7 [label="gini = 0.0\nsamples = 1\nvalue = [0, 0, 1]\nclass = virginica", fillcolor="#8139e5"] ;
6 -> 7 ;
8 [label="petal length (cm) <= 4.95\ngini = 0.09\nsamples = 16\nvalue = [0, 21, 1]\nclass = versicolor", fillcolor="#42e687"] ;
6 -> 8 ;
9 [label="gini = 0.0\nsamples = 14\nvalue = [0, 18, 0]\nclass = versicolor", fillcolor="#39e581"] ;
8 -> 9 ;
10 [label="petal width (cm) <= 1.6\ngini = 0.38\nsamples = 2\nvalue = [0, 3, 1]\nclass = versicolor", fillcolor="#7beeab"] ;
8 -> 10 ;
11 [label="gini = 0.0\nsamples = 1\nvalue = [0, 0, 1]\nclass = virginica", fillcolor="#8139e5"] ;
10 -> 11 ;
12 [label="gini = 0.0\nsamples = 1\nvalue = [0, 3, 0]\nclass = versicolor", fillcolor="#39e581"] ;
10 -> 12 ;
13 [label="sepal length (cm) <= 6.05\ngini = 0.47\nsamples = 3\nvalue = [0, 3, 5]\nclass = virginica", fillcolor="#cdb0f5"] ;
5 -> 13 ;
14 [label="gini = 0.0\nsamples = 1\nvalue = [0, 3, 0]\nclass = versicolor", fillcolor="#39e581"] ;
13 -> 14 ;
15 [label="gini = 0.0\nsamples = 2\nvalue = [0, 0, 5]\nclass = virginica", fillcolor="#8139e5"] ;
13 -> 15 ;
16 [label="gini = 0.0\nsamples = 34\nvalue = [0, 0, 49]\nclass = virginica", fillcolor="#8139e5"] ;
2 -> 16 ;
}